\data\
ngram 1=2
ngram 2=1
ngram 3=1
ngram 4=1
ngram 5=1

\1-grams:
-3.748702 " -0.4572286
-5.240172 surface -0.4572286

\2-grams:
-3.748702 " " -0.4572286

\3-grams:
-3.748702 " " " -0.4572286

\4-grams:
-3.748702 " " " " -0.4572286

\5-grams:
-3.748702 " " " " "

\end\
